Language model created by QuickLM on Thu Jul  4 07:17:19 EDT 2019
Copyright (c) 1996-2010 Carnegie Mellon University and Alexander I. Rudnicky

The model is in standard ARPA format, designed by Doug Paul while he was at MITRE.

The code that was used to produce this language model is available in Open Source.
Please visit http://www.speech.cs.cmu.edu/tools/ for more information

The (fixed) discount mass is 0.5. The backoffs are computed using the ratio method.
This model based on a corpus of 24 sentences and 26 words

\data\
ngram 1=26
ngram 2=48
ngram 3=24

\1-grams:
-0.7782 </s> -0.3010
-0.7782 <s> -0.2218
-2.1584 停下 -0.2218
-2.1584 停了 -0.2218
-2.1584 停止 -0.2218
-2.1584 停车 -0.2218
-2.1584 前进 -0.2218
-2.1584 右拐 -0.2218
-2.1584 右转 -0.2218
-2.1584 后退 -0.2218
-2.1584 向前 -0.2218
-2.1584 向后 -0.2218
-2.1584 孝心 -0.2218
-2.1584 小丁 -0.2218
-2.1584 小心 -0.2218
-2.1584 小新 -0.2218
-2.1584 小星 -0.2218
-2.1584 小樱 -0.2218
-2.1584 小西 -0.2218
-2.1584 左拐 -0.2218
-2.1584 左转 -0.2218
-2.1584 往前 -0.2218
-2.1584 往右 -0.2218
-2.1584 拍照 -0.2218
-2.1584 照相 -0.2218
-2.1584 靠左 -0.2218

\2-grams:
-1.6812 <s> 停下 0.0000
-1.6812 <s> 停了 0.0000
-1.6812 <s> 停止 0.0000
-1.6812 <s> 停车 0.0000
-1.6812 <s> 前进 0.0000
-1.6812 <s> 右拐 0.0000
-1.6812 <s> 右转 0.0000
-1.6812 <s> 后退 0.0000
-1.6812 <s> 向前 0.0000
-1.6812 <s> 向后 0.0000
-1.6812 <s> 孝心 0.0000
-1.6812 <s> 小丁 0.0000
-1.6812 <s> 小心 0.0000
-1.6812 <s> 小新 0.0000
-1.6812 <s> 小星 0.0000
-1.6812 <s> 小樱 0.0000
-1.6812 <s> 小西 0.0000
-1.6812 <s> 左拐 0.0000
-1.6812 <s> 左转 0.0000
-1.6812 <s> 往前 0.0000
-1.6812 <s> 往右 0.0000
-1.6812 <s> 拍照 0.0000
-1.6812 <s> 照相 0.0000
-1.6812 <s> 靠左 0.0000
-0.3010 停下 </s> -0.3010
-0.3010 停了 </s> -0.3010
-0.3010 停止 </s> -0.3010
-0.3010 停车 </s> -0.3010
-0.3010 前进 </s> -0.3010
-0.3010 右拐 </s> -0.3010
-0.3010 右转 </s> -0.3010
-0.3010 后退 </s> -0.3010
-0.3010 向前 </s> -0.3010
-0.3010 向后 </s> -0.3010
-0.3010 孝心 </s> -0.3010
-0.3010 小丁 </s> -0.3010
-0.3010 小心 </s> -0.3010
-0.3010 小新 </s> -0.3010
-0.3010 小星 </s> -0.3010
-0.3010 小樱 </s> -0.3010
-0.3010 小西 </s> -0.3010
-0.3010 左拐 </s> -0.3010
-0.3010 左转 </s> -0.3010
-0.3010 往前 </s> -0.3010
-0.3010 往右 </s> -0.3010
-0.3010 拍照 </s> -0.3010
-0.3010 照相 </s> -0.3010
-0.3010 靠左 </s> -0.3010

\3-grams:
-0.3010 <s> 停下 </s>
-0.3010 <s> 停了 </s>
-0.3010 <s> 停止 </s>
-0.3010 <s> 停车 </s>
-0.3010 <s> 前进 </s>
-0.3010 <s> 右拐 </s>
-0.3010 <s> 右转 </s>
-0.3010 <s> 后退 </s>
-0.3010 <s> 向前 </s>
-0.3010 <s> 向后 </s>
-0.3010 <s> 孝心 </s>
-0.3010 <s> 小丁 </s>
-0.3010 <s> 小心 </s>
-0.3010 <s> 小新 </s>
-0.3010 <s> 小星 </s>
-0.3010 <s> 小樱 </s>
-0.3010 <s> 小西 </s>
-0.3010 <s> 左拐 </s>
-0.3010 <s> 左转 </s>
-0.3010 <s> 往前 </s>
-0.3010 <s> 往右 </s>
-0.3010 <s> 拍照 </s>
-0.3010 <s> 照相 </s>
-0.3010 <s> 靠左 </s>

\end\
