Language model created by QuickLM on Thu Jul  4 06:35:00 EDT 2019
Copyright (c) 1996-2010 Carnegie Mellon University and Alexander I. Rudnicky

The model is in standard ARPA format, designed by Doug Paul while he was at MITRE.

The code that was used to produce this language model is available in Open Source.
Please visit http://www.speech.cs.cmu.edu/tools/ for more information

The (fixed) discount mass is 0.5. The backoffs are computed using the ratio method.
This model based on a corpus of 8 sentences and 10 words

\data\
ngram 1=10
ngram 2=16
ngram 3=8

\1-grams:
-0.7782 </s> -0.3010
-0.7782 <s> -0.2218
-1.6812 前进 -0.2218
-1.6812 右拐 -0.2218
-1.6812 后退 -0.2218
-1.6812 向前 -0.2218
-1.6812 向后 -0.2218
-1.6812 左转 -0.2218
-1.6812 往右 -0.2218
-1.6812 靠左 -0.2218

\2-grams:
-1.2041 <s> 前进 0.0000
-1.2041 <s> 右拐 0.0000
-1.2041 <s> 后退 0.0000
-1.2041 <s> 向前 0.0000
-1.2041 <s> 向后 0.0000
-1.2041 <s> 左转 0.0000
-1.2041 <s> 往右 0.0000
-1.2041 <s> 靠左 0.0000
-0.3010 前进 </s> -0.3010
-0.3010 右拐 </s> -0.3010
-0.3010 后退 </s> -0.3010
-0.3010 向前 </s> -0.3010
-0.3010 向后 </s> -0.3010
-0.3010 左转 </s> -0.3010
-0.3010 往右 </s> -0.3010
-0.3010 靠左 </s> -0.3010

\3-grams:
-0.3010 <s> 前进 </s>
-0.3010 <s> 右拐 </s>
-0.3010 <s> 后退 </s>
-0.3010 <s> 向前 </s>
-0.3010 <s> 向后 </s>
-0.3010 <s> 左转 </s>
-0.3010 <s> 往右 </s>
-0.3010 <s> 靠左 </s>

\end\
